Year,GMST_CRUTEM5,GMST_CRUTEM5_p2.5,GMST_CRUTEM5_p97.5,GMST_HadSST4,GMST_HadSST4_p2.5,GMST_HadSST4_p97.5,GMST_HadSST4_unadj,GMST_ClassNMAT,GMST_CoastalHybridSST,GMST_ERSST5,GMST_COBE_SST2,GMST_BESTLand
1850,-0.239,-0.346,-0.111,-0.302,-0.459,-0.176,-0.508,NA,-0.085,NA,-0.237,-0.399
1851,-0.107,-0.275,0.078,-0.237,-0.386,-0.097,-0.453,NA,-0.097,NA,-0.134,-0.346
1852,-0.216,-0.391,-0.018,-0.154,-0.289,0.003,-0.364,NA,-0.126,NA,-0.15,-0.412
1853,-0.43,-0.763,-0.096,-0.174,-0.31,-0.082,-0.393,NA,-0.292,NA,-0.182,-0.426
1854,-0.344,-0.667,-0.058,-0.234,-0.373,-0.117,-0.452,NA,-0.435,-0.077,-0.204,-0.381
1855,-0.429,-0.762,-0.105,-0.225,-0.343,-0.099,-0.438,NA,-0.334,-0.083,-0.217,-0.426
1856,-0.286,-0.571,-0.058,-0.407,-0.526,-0.295,-0.622,NA,-0.403,-0.247,-0.241,-0.383
1857,-0.588,-0.845,-0.355,-0.489,-0.602,-0.384,-0.701,NA,-0.461,-0.353,-0.367,-0.66
1858,-0.537,-0.838,-0.269,-0.424,-0.557,-0.314,-0.638,NA,-0.612,-0.234,-0.254,-0.515
1859,-0.558,-0.871,-0.287,-0.231,-0.342,-0.114,-0.45,NA,-0.677,-0.127,-0.229,-0.496
1860,-0.52,-0.833,-0.27,-0.291,-0.407,-0.195,-0.513,NA,-0.469,-0.195,-0.225,-0.565
1861,-0.322,-0.566,-0.111,-0.391,-0.503,-0.298,-0.612,NA,-0.491,-0.333,-0.293,-0.483
1862,-0.286,-0.478,-0.101,-0.432,-0.556,-0.335,-0.657,NA,-0.756,-0.344,-0.28,-0.61
1863,-0.305,-0.481,-0.115,-0.35,-0.449,-0.266,-0.574,NA,-0.802,-0.278,-0.343,-0.475
1864,-0.555,-0.751,-0.315,-0.404,-0.506,-0.311,-0.632,NA,-0.613,-0.313,-0.31,-0.585
1865,-0.262,-0.533,-0.006,-0.154,-0.241,-0.042,-0.379,NA,-0.225,-0.036,-0.161,-0.326
1866,-0.58,-0.842,-0.319,-0.144,-0.254,-0.035,-0.375,NA,-0.264,-0.029,-0.16,-0.413
1867,-0.456,-0.75,-0.192,-0.184,-0.289,-0.094,-0.413,NA,-0.364,-0.071,-0.164,-0.368
1868,-0.376,-0.649,-0.101,-0.093,-0.209,0.015,-0.323,NA,-0.38,-0.047,-0.183,-0.349
1869,-0.234,-0.486,0.017,-0.26,-0.356,-0.157,-0.493,NA,-0.45,-0.12,-0.222,-0.277
1870,-0.408,-0.654,-0.192,-0.279,-0.344,-0.177,-0.508,NA,-0.492,-0.136,-0.239,-0.476
1871,-0.459,-0.672,-0.235,-0.307,-0.391,-0.207,-0.53,NA,-0.431,-0.186,-0.224,-0.532
1872,-0.358,-0.581,-0.131,-0.247,-0.328,-0.137,-0.478,NA,-0.359,-0.149,-0.206,-0.453
1873,-0.214,-0.475,0.033,-0.298,-0.39,-0.222,-0.538,NA,-0.391,-0.201,-0.281,-0.43
1874,-0.316,-0.569,-0.03,-0.462,-0.553,-0.348,-0.698,NA,-0.557,-0.309,-0.336,-0.481
1875,-0.323,-0.577,-0.035,-0.22,-0.32,-0.112,-0.468,NA,-0.383,-0.139,-0.228,-0.569
1876,-0.335,-0.579,-0.064,-0.361,-0.44,-0.263,-0.604,NA,-0.559,-0.269,-0.276,-0.458
1877,-0.126,-0.387,0.178,0.078,-0.015,0.177,-0.174,NA,-0.189,0.13,-0.006,-0.222
1878,-0.008,-0.275,0.275,0.079,-0.005,0.174,-0.169,NA,-0.08,0.196,0.01,-0.054
1879,-0.449,-0.722,-0.162,-0.205,-0.284,-0.109,-0.458,NA,-0.281,-0.076,-0.18,-0.548
1880,-0.336,-0.595,-0.036,-0.272,-0.36,-0.181,-0.531,-0.109,-0.301,-0.17,-0.22,-0.54
1881,-0.133,-0.409,0.143,-0.18,-0.266,-0.089,-0.444,0.01,-0.15,-0.094,-0.129,-0.346
1882,-0.346,-0.591,-0.088,-0.233,-0.324,-0.125,-0.496,-0.143,-0.196,-0.147,-0.216,-0.517
1883,-0.377,-0.628,-0.126,-0.281,-0.373,-0.184,-0.555,-0.04,-0.335,-0.212,-0.229,-0.539
1884,-0.62,-0.865,-0.361,-0.442,-0.52,-0.344,-0.716,-0.064,-0.534,-0.334,-0.273,-0.734
1885,-0.464,-0.725,-0.245,-0.405,-0.492,-0.308,-0.69,-0.03,-0.39,-0.318,-0.247,-0.596
1886,-0.413,-0.65,-0.16,-0.401,-0.491,-0.32,-0.69,0.044,-0.314,-0.276,-0.262,-0.571
1887,-0.613,-0.873,-0.326,-0.484,-0.571,-0.373,-0.776,-0.142,-0.436,-0.429,-0.353,-0.705
1888,-0.41,-0.65,-0.159,-0.336,-0.431,-0.233,-0.617,-0.161,-0.285,-0.257,-0.227,-0.468
1889,-0.25,-0.483,-0.013,-0.148,-0.236,-0.044,-0.436,-0.06,-0.136,-0.145,-0.209,-0.324
1890,-0.594,-0.831,-0.339,-0.483,-0.562,-0.401,-0.772,-0.303,-0.436,-0.478,-0.406,-0.65
1891,-0.418,-0.689,-0.168,-0.364,-0.457,-0.256,-0.654,-0.084,-0.249,-0.316,-0.265,-0.523
1892,-0.548,-0.802,-0.284,-0.501,-0.613,-0.384,-0.792,-0.192,-0.438,-0.448,-0.378,-0.547
1893,-0.59,-0.856,-0.316,-0.459,-0.569,-0.345,-0.755,-0.238,-0.401,-0.453,-0.407,-0.558
1894,-0.524,-0.792,-0.263,-0.493,-0.589,-0.378,-0.79,-0.12,-0.445,-0.481,-0.411,-0.49
1895,-0.453,-0.707,-0.185,-0.388,-0.499,-0.288,-0.685,-0.078,-0.365,-0.363,-0.286,-0.419
1896,-0.301,-0.565,-0.025,-0.178,-0.285,-0.062,-0.479,-0.191,-0.181,-0.144,-0.133,-0.326
1897,-0.215,-0.476,0.049,-0.235,-0.335,-0.13,-0.539,-0.247,-0.192,-0.181,-0.156,-0.259
1898,-0.403,-0.643,-0.118,-0.473,-0.591,-0.356,-0.786,-0.338,-0.355,-0.393,-0.331,-0.426
1899,-0.282,-0.531,0.002,-0.349,-0.464,-0.22,-0.66,-0.25,-0.211,-0.31,-0.258,-0.282
1900,-0.186,-0.422,0.105,-0.231,-0.33,-0.108,-0.541,-0.195,-0.063,-0.181,-0.175,-0.202
1901,-0.258,-0.463,0.038,-0.389,-0.511,-0.28,-0.705,-0.248,-0.114,-0.343,-0.279,-0.254
1902,-0.285,-0.511,-0.02,-0.5,-0.616,-0.391,-0.823,-0.338,-0.131,-0.482,-0.337,-0.372
1903,-0.365,-0.615,-0.106,-0.664,-0.779,-0.546,-0.989,-0.532,-0.278,-0.629,-0.432,-0.441
1904,-0.477,-0.731,-0.212,-0.706,-0.826,-0.586,-1.029,-0.571,-0.291,-0.729,-0.475,-0.585
1905,-0.273,-0.507,0.009,-0.512,-0.635,-0.38,-0.84,-0.52,-0.17,-0.541,-0.331,-0.403
1906,-0.212,-0.436,0.079,-0.414,-0.539,-0.3,-0.747,-0.391,-0.114,-0.454,-0.303,-0.322
1907,-0.427,-0.664,-0.128,-0.54,-0.634,-0.417,-0.882,-0.545,-0.233,-0.588,-0.407,-0.56
1908,-0.428,-0.631,-0.142,-0.664,-0.755,-0.545,-1.012,-0.596,-0.318,-0.709,-0.496,-0.496
1909,-0.348,-0.568,-0.055,-0.728,-0.809,-0.616,-1.096,-0.634,-0.397,-0.763,-0.493,-0.479
1910,-0.391,-0.608,-0.142,-0.699,-0.787,-0.593,-1.08,-0.581,-0.347,-0.733,-0.504,-0.496
1911,-0.297,-0.517,-0.036,-0.725,-0.807,-0.637,-1.12,-0.626,-0.376,-0.741,-0.487,-0.446
1912,-0.288,-0.51,-0.043,-0.51,-0.597,-0.406,-0.91,-0.433,-0.201,-0.524,-0.33,-0.418
1913,-0.323,-0.544,-0.071,-0.57,-0.662,-0.478,-0.977,-0.457,-0.271,-0.584,-0.396,-0.404
1914,-0.093,-0.31,0.156,-0.373,-0.463,-0.252,-0.782,-0.075,-0.071,-0.38,-0.25,-0.2
1915,-0.03,-0.249,0.217,-0.241,-0.343,-0.131,-0.66,-0.031,0.029,-0.291,-0.153,-0.148
1916,-0.303,-0.52,-0.056,-0.453,-0.573,-0.332,-0.885,-0.332,-0.225,-0.484,-0.358,-0.422
1917,-0.445,-0.669,-0.176,-0.64,-0.781,-0.531,-1.083,-0.325,-0.42,-0.625,-0.36,-0.594
1918,-0.353,-0.569,-0.095,-0.436,-0.536,-0.322,-0.876,-0.178,-0.234,-0.468,-0.26,-0.508
1919,-0.2,-0.417,0.06,-0.443,-0.549,-0.307,-0.883,-0.117,-0.176,-0.419,-0.231,-0.31
1920,-0.193,-0.413,0.079,-0.33,-0.436,-0.212,-0.774,-0.208,-0.119,-0.386,-0.234,-0.351
1921,-0.156,-0.377,0.101,-0.33,-0.436,-0.207,-0.776,-0.184,-0.147,-0.374,-0.245,-0.292
1922,-0.194,-0.414,0.069,-0.409,-0.512,-0.274,-0.839,-0.259,-0.193,-0.487,-0.289,-0.345
1923,-0.251,-0.467,0.01,-0.368,-0.459,-0.234,-0.806,-0.252,-0.131,-0.472,-0.276,-0.363
1924,-0.153,-0.368,0.116,-0.392,-0.5,-0.248,-0.831,-0.296,-0.098,-0.454,-0.267,-0.301
1925,-0.177,-0.397,0.077,-0.333,-0.444,-0.191,-0.776,-0.219,-0.053,-0.41,-0.2,-0.309
1926,-0.023,-0.242,0.232,-0.166,-0.267,-0.029,-0.604,-0.136,0.071,-0.234,-0.093,-0.099
1927,-0.114,-0.328,0.146,-0.241,-0.344,-0.114,-0.682,-0.206,-0.009,-0.313,-0.195,-0.224
1928,-0.129,-0.349,0.137,-0.274,-0.357,-0.142,-0.717,-0.179,-0.008,-0.383,-0.229,-0.202
1929,-0.331,-0.542,-0.055,-0.387,-0.488,-0.247,-0.833,-0.299,-0.134,-0.481,-0.234,-0.384
1930,-0.113,-0.256,0.071,-0.21,-0.314,-0.058,-0.652,-0.231,0,-0.305,-0.11,-0.193
1931,-0.047,-0.185,0.131,-0.128,-0.235,0.014,-0.578,-0.169,0.02,-0.228,-0.07,-0.143
1932,-0.101,-0.241,0.055,-0.222,-0.33,-0.086,-0.661,-0.296,-0.052,-0.342,-0.169,-0.204
1933,-0.225,-0.351,-0.075,-0.325,-0.426,-0.199,-0.752,-0.311,-0.103,-0.41,-0.205,-0.37
1934,-0.093,-0.219,0.068,-0.25,-0.346,-0.114,-0.66,-0.214,0.021,-0.342,-0.164,-0.245
1935,-0.116,-0.245,0.026,-0.277,-0.364,-0.143,-0.678,-0.22,0.021,-0.336,-0.139,-0.276
1936,-0.078,-0.216,0.046,-0.179,-0.265,-0.045,-0.578,-0.148,0.075,-0.296,-0.085,-0.222
1937,0.013,-0.107,0.143,-0.027,-0.128,0.111,-0.43,-0.051,0.216,-0.177,0.01,-0.113
1938,0.064,-0.054,0.192,-0.13,-0.229,0.002,-0.499,-0.07,0.107,-0.257,-0.072,-0.085
1939,0.001,-0.113,0.102,-0.104,-0.216,0.026,-0.395,-0.078,0.094,-0.19,-0.091,-0.157
1940,0.084,-0.011,0.194,0.046,-0.094,0.168,-0.15,-0.135,0.189,0.079,0.008,-0.051
1941,0.071,-0.025,0.163,0.022,-0.288,0.28,0.067,0.125,0.146,0.284,0.123,-0.053
1942,-0.002,-0.092,0.084,0.073,-0.25,0.345,0.101,0.091,0.034,0.024,0.056,-0.099
1943,-0.062,-0.14,0.014,0.079,-0.252,0.365,0.111,0.296,-0.014,-0.014,0.018,-0.156
1944,0.042,-0.034,0.12,0.254,-0.091,0.516,0.277,0.074,0.099,0.243,0.155,-0.066
1945,-0.029,-0.097,0.05,0.2,-0.113,0.449,0.209,-0.02,0.078,0.192,0.128,-0.134
1946,-0.076,-0.14,-0.003,-0.078,-0.3,0.111,-0.15,-0.127,-0.078,-0.145,-0.066,-0.148
1947,0.032,-0.026,0.089,-0.161,-0.382,0.017,-0.298,-0.226,-0.024,-0.277,-0.083,-0.019
1948,-0.06,-0.114,-0.007,-0.133,-0.361,0.049,-0.276,-0.239,0.008,-0.286,-0.036,-0.105
1949,-0.126,-0.19,-0.072,-0.145,-0.308,0.006,-0.228,-0.254,-0.034,-0.252,-0.01,-0.174
1950,-0.239,-0.302,-0.19,-0.188,-0.298,-0.055,-0.271,-0.315,-0.137,-0.267,-0.077,-0.275
1951,-0.086,-0.129,-0.029,-0.074,-0.164,0.059,-0.153,-0.231,-0.069,-0.187,0.023,-0.118
1952,-0.038,-0.083,0.009,0.077,-0.014,0.224,0.001,-0.003,0.052,-0.062,0.06,-0.085
1953,0.069,0.017,0.119,0.087,-0.003,0.238,0.009,-0.082,0.001,-0.042,0.041,-0.003
1954,-0.139,-0.186,-0.089,-0.107,-0.206,0.017,-0.177,-0.223,-0.139,-0.249,-0.131,-0.175
1955,-0.19,-0.24,-0.149,-0.229,-0.339,-0.113,-0.261,-0.239,-0.227,-0.307,-0.192,-0.251
1956,-0.291,-0.336,-0.244,-0.282,-0.383,-0.169,-0.27,-0.274,-0.289,-0.284,-0.16,-0.363
1957,-0.028,-0.068,0.014,-0.022,-0.115,0.076,0.017,0.005,-0.052,-0.033,0.057,-0.08
1958,0.011,-0.029,0.05,0.015,-0.067,0.113,0.059,0.056,0.014,0.034,0.059,-0.021
1959,-0.016,-0.054,0.029,-0.045,-0.131,0.057,0.004,-0.037,-0.038,-0.032,-0.024,-0.028
1960,-0.071,-0.113,-0.035,-0.085,-0.158,0.014,-0.019,-0.061,-0.071,-0.051,-0.065,-0.114
1961,-0.024,-0.061,0.009,0.007,-0.051,0.089,0.057,-0.002,0.001,0.016,-0.034,-0.03
1962,-0.075,-0.113,-0.038,-0.086,-0.14,-0.019,-0.01,-0.07,-0.074,-0.025,-0.05,-0.095
1963,-0.041,-0.076,-0.007,-0.045,-0.098,0.02,0.012,0.009,-0.093,-0.024,0.004,-0.059
1964,-0.29,-0.326,-0.257,-0.248,-0.302,-0.179,-0.178,-0.209,-0.269,-0.243,-0.152,-0.308
1965,-0.192,-0.225,-0.16,-0.216,-0.271,-0.137,-0.146,-0.167,-0.216,-0.241,-0.097,-0.232
1966,-0.129,-0.161,-0.093,-0.141,-0.193,-0.074,-0.07,-0.083,-0.142,-0.157,-0.033,-0.144
1967,-0.094,-0.127,-0.065,-0.11,-0.164,-0.054,-0.009,-0.094,-0.086,-0.138,-0.065,-0.126
1968,-0.163,-0.193,-0.135,-0.182,-0.22,-0.128,-0.059,-0.1,-0.129,-0.178,-0.034,-0.206
1969,-0.031,-0.061,-0.004,0.055,0.013,0.107,0.179,0.001,0.061,0.046,0.114,-0.017
1970,-0.06,-0.086,-0.035,-0.072,-0.103,-0.024,0.048,-0.025,-0.068,-0.053,-0.033,-0.055
1971,-0.185,-0.208,-0.158,-0.261,-0.296,-0.206,-0.165,-0.154,-0.263,-0.26,-0.162,-0.228
1972,-0.088,-0.114,-0.058,-0.063,-0.096,-0.019,0.003,-0.013,-0.083,-0.071,0.042,-0.126
1973,0.065,0.042,0.095,0.065,0.022,0.109,0.107,0.04,0.058,0.046,0.006,0.088
1974,-0.175,-0.198,-0.148,-0.151,-0.197,-0.104,-0.134,-0.18,-0.177,-0.169,-0.144,-0.187
1975,-0.123,-0.144,-0.093,-0.149,-0.188,-0.108,-0.149,-0.07,-0.159,-0.195,-0.191,-0.119
1976,-0.232,-0.259,-0.208,-0.133,-0.181,-0.097,-0.156,-0.153,-0.12,-0.17,-0.165,-0.237
1977,0.102,0.079,0.126,0.172,0.125,0.212,0.125,0.097,0.187,0.066,0.014,0.11
1978,0.014,-0.01,0.039,0.031,-0.011,0.074,-0.021,0.041,0.083,-0.021,-0.018,0.018
1979,0.054,0.026,0.075,0.17,0.136,0.209,0.101,0.11,0.188,0.106,0.101,0.042
1980,0.193,0.165,0.223,0.195,0.155,0.231,0.13,0.202,0.233,0.147,0.09,0.172
1981,0.221,0.196,0.252,0.193,0.155,0.234,0.14,0.183,0.218,0.12,0.023,0.213
1982,0.033,0.006,0.061,0.129,0.084,0.166,0.091,0.007,0.109,0.087,0.034,0.004
1983,0.225,0.193,0.257,0.281,0.242,0.323,0.241,0.222,0.25,0.236,0.103,0.239
1984,0.045,0.016,0.075,0.119,0.076,0.159,0.078,0.039,0.125,0.104,0.015,0.041
1985,0.02,-0.011,0.049,0.089,0.051,0.122,0.035,-0.041,0.094,0.018,-0.002,0.03
1986,0.098,0.069,0.131,0.099,0.054,0.141,0.036,0.066,0.134,0.077,0.058,0.122
1987,0.263,0.234,0.294,0.287,0.247,0.323,0.216,0.284,0.305,0.264,0.197,0.3
1988,0.282,0.248,0.314,0.305,0.265,0.345,0.223,0.254,0.313,0.268,0.111,0.302
1989,0.146,0.119,0.188,0.2,0.163,0.242,0.107,0.155,0.215,0.167,0.076,0.167
1990,0.343,0.308,0.375,0.356,0.318,0.403,0.256,0.32,0.375,0.291,0.175,0.37
1991,0.341,0.306,0.383,0.343,0.296,0.382,0.231,0.25,0.343,0.239,0.167,0.348
1992,0.095,0.05,0.136,0.227,0.183,0.268,0.11,0.102,0.234,0.134,0.087,0.126
1993,0.157,0.115,0.2,0.26,0.216,0.301,0.147,0.095,0.28,0.14,0.105,0.175
1994,0.228,0.193,0.272,0.318,0.269,0.356,0.207,0.177,0.356,0.195,0.131,0.264
1995,0.397,0.357,0.442,0.414,0.368,0.456,0.309,0.218,0.403,0.274,0.172,0.443
1996,0.259,0.216,0.307,0.301,0.263,0.344,0.197,0.115,0.292,0.184,0.171,0.267
1997,0.396,0.348,0.445,0.492,0.453,0.531,0.395,0.251,0.465,0.331,0.344,0.421
1998,0.58,0.535,0.633,0.645,0.597,0.699,0.574,0.449,0.62,0.482,0.378,0.671
1999,0.344,0.291,0.397,0.349,0.3,0.391,0.283,0.208,0.333,0.232,0.159,0.393
2000,0.333,0.279,0.382,0.353,0.31,0.387,0.289,0.247,0.352,0.252,0.201,0.366
2001,0.457,0.404,0.504,0.496,0.453,0.531,0.438,0.332,0.529,0.39,0.308,0.51
2002,0.553,0.501,0.606,0.558,0.514,0.596,0.498,0.395,0.594,0.443,0.335,0.619
2003,0.55,0.498,0.597,0.595,0.551,0.627,0.536,0.411,0.631,0.49,0.357,0.618
2004,0.476,0.422,0.518,0.554,0.51,0.588,0.488,0.353,0.581,0.465,0.344,0.505
2005,0.619,0.565,0.667,0.612,0.577,0.646,0.542,0.44,0.657,0.503,0.362,0.675
2006,0.585,0.52,0.636,0.515,0.48,0.551,0.43,0.341,0.565,0.465,0.354,0.624
2007,0.614,0.552,0.666,0.513,0.479,0.55,0.426,0.382,0.552,0.434,0.281,0.674
2008,0.453,0.395,0.509,0.438,0.404,0.474,0.351,0.286,0.463,0.37,0.274,0.516
2009,0.588,0.529,0.645,0.616,0.581,0.648,0.519,0.353,0.642,0.534,0.407,0.639
2010,0.661,0.607,0.706,0.652,0.62,0.686,0.543,0.404,0.676,0.573,0.405,0.754
2011,0.544,0.486,0.597,0.52,0.486,0.559,0.413,0.272,0.573,0.434,0.309,0.579
2012,0.575,0.522,0.627,0.572,0.539,0.604,0.461,0.296,0.663,0.499,0.361,0.623
2013,0.61,0.555,0.666,0.582,0.543,0.621,0.458,0.332,0.666,0.503,0.419,0.654
2014,0.67,0.608,0.729,0.715,0.677,0.756,0.575,0.444,0.738,0.639,0.486,0.713
2015,0.81,0.755,0.873,0.879,0.845,0.922,0.73,0.594,0.872,0.802,0.586,0.87
2016,0.963,0.917,1.027,0.964,0.928,1.002,0.804,0.662,1.022,0.895,0.611,1.052
2017,0.853,0.8,0.916,0.867,0.834,0.906,0.696,0.479,NA,0.796,0.538,0.917
2018,0.779,0.73,0.837,0.816,0.776,0.854,0.629,0.513,NA,0.728,0.495,0.835
2019,0.891,0.832,0.952,0.908,0.863,0.952,0.714,0.6,NA,0.82,0.592,0.986
2020,0.945,0.883,1.009,0.953,0.919,0.994,0.762,NA,NA,0.834,NA,1.053
